10 128
4 0.04097262 -0.0011878045 -0.03446453 -0.025125306 -0.023290915 0.020494465 -0.035591397 0.061988197 0.0016058377 0.0034616375 0.019794904 0.060761414 -0.045416646 0.052870136 0.01818769 0.01781607 0.041531146 -0.018333092 0.027812634 0.023859933 -0.038159825 0.034049932 0.022333415 0.050947413 -0.018292747 0.047080517 -0.028884696 -0.011740962 -0.0056555136 -0.023629077 -0.0433959 0.019890713 -0.005300084 -0.024330541 -0.06695002 -0.024398554 -0.011936437 0.013544662 0.045854136 -0.010697279 0.0013383818 -0.04045795 -0.014607985 0.034028847 -0.02251171 -0.007653216 -0.031211937 -0.04952459 0.012255805 -0.051521465 -0.009569301 0.0031468235 0.00047714153 0.024607847 0.023317004 -0.013197938 -0.07861012 0.02550208 -0.031003423 -0.0041385577 0.07085887 -0.05528298 -0.0074833464 0.000490577 0.0053489036 -0.08363229 0.0031073927 -0.004708454 -0.006446806 -0.0072784363 -0.02698295 -0.05790004 0.017144043 0.022960871 -0.04116159 0.04547532 -0.078364715 0.03451197 0.04545317 0.00021115084 0.0018814402 -0.031240309 0.008945854 -0.006184811 -0.008144975 -0.0067043295 0.026657095 -0.0055829706 0.008883666 -0.03385436 0.048980866 -0.0001826507 -0.05725579 0.059280243 -0.05073033 0.0024802454 0.028417837 0.08833688 -0.056057684 0.06814032 -0.04580371 0.012070312 0.015476409 -0.0020258238 -0.040702336 -0.028574003 0.063245974 -0.022599109 0.026748467 -0.023082215 -0.0329773 -0.022111973 0.041080512 0.023328384 -0.0044494756 0.023886608 -0.03553406 0.013491185 0.03671319 0.03366034 0.030667068 -0.030700322 -0.008864172 0.061768807 0.03904662 -0.019672977 -0.023618469 -0.03626324
5 0.046942584 -0.0014155138 -0.03765232 -0.02271487 -0.02940611 0.018595321 -0.04255228 0.06911232 0.002477863 0.005373431 0.018374387 0.06708693 -0.051965248 0.06142145 0.016852552 0.024953024 0.04643069 -0.014940191 0.033323355 0.021290345 -0.041510746 0.034968067 0.022721896 0.058858536 -0.018507458 0.050814748 -0.02748439 -0.008475956 -0.0034907444 -0.0268144 -0.048025135 0.02085884 -0.008133508 -0.026723327 -0.07473566 -0.026764465 -0.008517606 0.014248369 0.046836637 -0.0052446947 -0.0037232602 -0.04076062 -0.014481602 0.035066605 -0.026630815 -0.0012198322 -0.034588806 -0.051747117 0.0064263316 -0.054968577 -0.007924663 -0.001855034 0.00020345497 0.03232498 0.025837023 -0.0073278984 -0.083214924 0.03495345 -0.034479827 -0.007789703 0.074420385 -0.059767924 -0.0100910785 0.0057056034 0.0029361348 -0.09084236 0.011118055 -0.0039061836 -0.009165042 -0.004748308 -0.027136425 -0.057386592 0.015093666 0.02999672 -0.046977185 0.050028525 -0.081883624 0.03392056 0.047262453 0.0038145813 0.00720797 -0.027328238 0.00901494 -0.0059984 -0.0069427993 -0.010553825 0.027331647 -0.0015765721 0.010938544 -0.039760344 0.05864311 -0.0037733566 -0.061115634 0.060117222 -0.059129268 0.0012563791 0.031193696 0.09666123 -0.060524773 0.07348358 -0.04819942 0.0093528405 0.019157527 -0.008228469 -0.039622024 -0.031390294 0.06884262 -0.02846458 0.035286948 -0.023916576 -0.03468456 -0.027641237 0.044487778 0.029753195 -0.0033493112 0.021785116 -0.03580395 0.021242648 0.040953718 0.03476379 0.036334205 -0.030597186 -0.008509464 0.06370073 0.040239368 -0.021261783 -0.021950344 -0.04415741
0 0.04376943 -0.0043706 -0.03327571 -0.021169864 -0.026817106 0.018407425 -0.035022553 0.063910455 0.0051397667 0.005048342 0.016289737 0.060397577 -0.046414554 0.056308217 0.01391799 0.021043267 0.04252896 -0.018545566 0.028384553 0.022765296 -0.041581117 0.036579553 0.020904712 0.05546459 -0.019449666 0.042856853 -0.02574917 -0.013112852 -0.0021472902 -0.024049992 -0.040934544 0.015903655 -0.012730181 -0.022772063 -0.06972155 -0.026007438 -0.009481834 0.017836161 0.04091228 -0.009535865 -8.968933e-05 -0.0405152 -0.009816148 0.03251009 -0.021405539 -0.0027939794 -0.027184036 -0.048463605 0.0073976303 -0.053710748 -0.008154175 0.0006423003 -0.002060964 0.028322827 0.026208496 -0.009423987 -0.080271326 0.026162 -0.034874782 -0.009798491 0.07296424 -0.05594609 -0.012418939 0.006499879 0.0044954014 -0.08711715 0.008235772 -0.00052954996 -0.009903058 -0.0057034115 -0.026056176 -0.057251304 0.018327618 0.028809296 -0.045657635 0.04669884 -0.07670233 0.03648168 0.04543725 0.0061739436 0.0058112973 -0.029004045 0.0070711724 -0.0056768153 -0.010791513 -0.010149836 0.020941919 -0.0012477079 0.01247662 -0.031870622 0.05346521 0.0014435393 -0.058801156 0.055961106 -0.054407902 -0.0012895785 0.029612536 0.0865099 -0.053075667 0.0672927 -0.04422476 0.011529498 0.013439964 -0.002697598 -0.04047004 -0.028556803 0.062474713 -0.020041443 0.032352377 -0.025523422 -0.037172887 -0.028027892 0.043069396 0.030814836 -0.0025488515 0.024373077 -0.028995242 0.020696552 0.039511424 0.027317509 0.033472095 -0.025770776 -0.005849931 0.05736468 0.043141846 -0.020756803 -0.023203801 -0.040404897
1 0.03929627 0.00066014787 -0.02777994 -0.019064378 -0.021392463 0.021093583 -0.035149064 0.058898315 0.0058200886 0.0034113363 0.018920176 0.05412732 -0.042229198 0.048082914 0.010905481 0.017104937 0.033441328 -0.017384151 0.023113316 0.021512855 -0.0361779 0.025588455 0.022418624 0.0448044 -0.020133495 0.042799883 -0.022968879 -0.0070242253 -0.0069834674 -0.023185093 -0.040121574 0.0187532 -0.0041064247 -0.018398969 -0.061256617 -0.024125949 -0.010176942 0.010710566 0.042403366 -0.0033028475 -0.0055255597 -0.030184025 -0.009216744 0.025509957 -0.0207631 -0.005227383 -0.030513637 -0.04591958 0.009740007 -0.04477302 -0.0019993987 -0.0023698204 0.0026595108 0.02160685 0.020427097 -0.009569481 -0.06958942 0.023991492 -0.02622433 -0.0036493184 0.058097918 -0.048898183 -0.008901123 0.0019500727 -0.0020245377 -0.07570362 0.00710355 -0.0022864025 -0.0037923486 -0.004855598 -0.017160697 -0.051480416 0.015242448 0.02208077 -0.038680807 0.041814547 -0.069511235 0.032255188 0.041946933 0.002931188 0.005080638 -0.02658187 0.0077408236 -0.007358235 -0.004084345 -0.01061858 0.019143613 -0.0001432916 0.0066081095 -0.027239589 0.04207627 0.0007341683 -0.05087944 0.050539598 -0.044252805 -0.0033418466 0.02004573 0.07907305 -0.048998717 0.05487709 -0.034074705 0.007292224 0.01237356 -0.0041910573 -0.035957612 -0.01932608 0.057785846 -0.022848643 0.02864269 -0.021353168 -0.03095062 -0.021844339 0.030997293 0.026763879 -0.0062456597 0.020255044 -0.030841868 0.015600825 0.033097915 0.03083101 0.024780152 -0.022866122 -0.006231774 0.051690713 0.0383646 -0.016960917 -0.022053353 -0.030185442
6 0.040962335 0.0021550439 -0.03026799 -0.020863434 -0.023473859 0.016345989 -0.030529646 0.0574229 -0.00057953404 0.0078054136 0.015458096 0.051515084 -0.039203316 0.047900822 0.015060816 0.020705396 0.035862442 -0.014200927 0.023608828 0.01639712 -0.036103867 0.031863187 0.01644603 0.04860391 -0.017950227 0.03904269 -0.020900594 -0.0072641745 -0.0059413305 -0.023557587 -0.039652485 0.013757146 -0.008669469 -0.01694236 -0.06276368 -0.020175327 -0.006592262 0.012406486 0.03880397 -0.005713886 0.0016167936 -0.03534552 -0.012665981 0.030079968 -0.025758212 -0.0016360453 -0.029657584 -0.039539907 0.0049304594 -0.045744706 -0.008554605 0.0031363398 -0.0011615438 0.026525803 0.022179175 -0.011786823 -0.067908496 0.029885588 -0.028888592 -0.010607707 0.06399382 -0.050495517 -0.0074605197 0.00392515 0.0037794858 -0.07601888 0.0063271425 -0.00079809997 -0.0031593654 -0.0064915633 -0.020566203 -0.052396413 0.011017605 0.024426745 -0.036487743 0.043717794 -0.07094726 0.03326833 0.039751694 0.00269608 0.0029708808 -0.024017612 0.0072647016 -0.008757062 -0.00515005 -0.00861497 0.023196228 0.00084820995 0.008003723 -0.03483179 0.0487369 0.0031455213 -0.05381333 0.050113358 -0.049767204 -3.1589683e-05 0.023428343 0.080848075 -0.04759001 0.061197307 -0.035500024 0.0048083463 0.012529502 -0.0036406668 -0.031341042 -0.021476353 0.05397931 -0.022462875 0.029899258 -0.021174096 -0.031530675 -0.025969263 0.0341875 0.024645777 -0.0008987493 0.017086715 -0.03130833 0.014715972 0.03440756 0.026462484 0.028694747 -0.028577242 -0.006797619 0.05472831 0.03974266 -0.020682884 -0.015789865 -0.037879936
3 0.035294738 -0.0023238696 -0.025606364 -0.02249335 -0.01874369 0.015844505 -0.034930218 0.051696565 0.0027032145 0.0074170753 0.012444553 0.051715452 -0.03564795 0.044878643 0.013022317 0.019648502 0.033975624 -0.0113781635 0.024849921 0.017753156 -0.03751842 0.031922095 0.021026328 0.04696119 -0.015074484 0.042780254 -0.027297046 -0.008721887 -0.001348736 -0.022211928 -0.03281307 0.013108188 -0.007023509 -0.01914095 -0.055576943 -0.024975536 -0.007506964 0.012852383 0.041859265 -0.010913111 0.000110546636 -0.03083601 -0.008224793 0.026847156 -0.023253344 -0.00093982625 -0.02740437 -0.045298565 0.010197233 -0.047916967 -0.0071297386 0.0014658705 0.00341278 0.02491089 0.02239747 -0.009386667 -0.07087416 0.022144979 -0.031819906 -0.009140613 0.06336096 -0.045746323 -0.01061042 0.002651171 0.004599478 -0.074155234 0.0069529493 -0.0011617126 -0.0073949588 -0.0052149235 -0.019805985 -0.05062983 0.014746542 0.02258334 -0.04066601 0.04119639 -0.06387602 0.029147869 0.039400987 -0.0013083796 0.0067610643 -0.024956554 0.007826169 -0.0060970546 -0.009401577 -0.0074239625 0.022884136 -0.0020764666 0.007487937 -0.03346419 0.042257246 -0.0006770489 -0.05395139 0.049131364 -0.048240505 1.2883241e-05 0.028140722 0.080235854 -0.043409083 0.0604993 -0.036747236 0.009173314 0.009993842 -0.0006893361 -0.036261234 -0.022704585 0.05694164 -0.02335126 0.027461521 -0.018912196 -0.033573993 -0.025543328 0.034648854 0.022158694 -0.0054318253 0.023656871 -0.026487129 0.018870153 0.03214208 0.029044438 0.030642262 -0.02614327 -0.008790512 0.055864472 0.03563136 -0.015295932 -0.016780864 -0.032381963
7 0.039615214 -0.005013357 -0.032494 -0.020988274 -0.023504324 0.017551525 -0.036725573 0.06603671 -0.00058557006 0.0080159195 0.022111498 0.064428605 -0.045895774 0.056723326 0.016537648 0.017200006 0.045696147 -0.012449058 0.030304667 0.024903491 -0.0364697 0.034183346 0.023660766 0.04930861 -0.016435232 0.046881508 -0.026514117 -0.012945761 -0.009509604 -0.026618091 -0.041847464 0.01734261 -0.00858366 -0.023154294 -0.07016471 -0.02682074 -0.011160036 0.012519498 0.047139343 -0.01015405 -0.00492248 -0.04199384 -0.012185866 0.037528038 -0.028168766 -0.006112028 -0.032261938 -0.045984272 0.0071064285 -0.04756011 -0.004369239 -0.003738397 4.801689e-05 0.023716042 0.02747914 -0.008616451 -0.077784024 0.030436521 -0.032034244 -0.0067406814 0.07387505 -0.056758583 -0.010693296 0.0067040147 0.004080478 -0.08634936 0.0070914193 -0.00479527 -0.0046273656 -0.008873549 -0.02466026 -0.055768736 0.018388271 0.029195743 -0.04347626 0.043040767 -0.07779499 0.037707113 0.049537852 -0.0014672586 0.002409184 -0.032298688 0.010157278 -0.004517006 -0.006642168 -0.007229862 0.023712628 -0.0038610348 0.008953041 -0.036814187 0.0536431 -0.0025389586 -0.056695066 0.058610223 -0.052011922 -0.004239284 0.030075368 0.08763203 -0.051195145 0.06930861 -0.043392804 0.010768616 0.014581179 -0.0077405763 -0.041426472 -0.024608612 0.066128194 -0.022429937 0.03340617 -0.023994781 -0.039284583 -0.022660544 0.042100135 0.026086325 -0.005660143 0.026238354 -0.032596745 0.014614756 0.03755969 0.031832337 0.033792026 -0.032339264 -0.007878292 0.06397319 0.04324365 -0.018099474 -0.018568706 -0.04198827
9 0.03831657 0.0017060009 -0.029621754 -0.021900382 -0.019037746 0.019331492 -0.027177995 0.052243944 0.0029531268 0.006390573 0.019671729 0.049046762 -0.035316393 0.0482067 0.011213147 0.017900662 0.0403279 -0.014332887 0.020596096 0.014711839 -0.033910334 0.025200892 0.022652652 0.040277652 -0.012920051 0.040914003 -0.024510719 -0.0068747737 -0.008090331 -0.0189821 -0.03788777 0.011818527 -0.009446328 -0.022533461 -0.057353467 -0.021857098 -0.0060145482 0.01486818 0.03770268 -0.0044381456 -0.000520432 -0.031346697 -0.008599188 0.031341754 -0.02369598 -0.0033735987 -0.022975057 -0.04467398 0.0101351775 -0.04693566 -0.0034472498 0.0032018486 0.0037516353 0.02509703 0.023124876 -0.0057711066 -0.0678023 0.029182168 -0.028104367 -0.009093949 0.06461012 -0.0495886 -0.011128323 0.002916518 -0.0015013475 -0.069594204 0.0033250905 -0.0031676772 -0.0028986197 -0.0072669224 -0.019404415 -0.04850849 0.015563059 0.023934124 -0.039455403 0.039572965 -0.0686734 0.027995497 0.03813816 -0.0017312309 0.0024065436 -0.026996437 0.011191767 -0.0025489647 -0.0073801936 -0.005204596 0.018859131 -0.0033314812 0.009320146 -0.03400922 0.046268024 -0.0016218757 -0.052631926 0.051272534 -0.04636537 -0.002367998 0.023910793 0.07620243 -0.04913836 0.059442144 -0.03853195 0.010526824 0.015475429 -0.006438776 -0.03173573 -0.018840764 0.058139652 -0.021250622 0.02514127 -0.020281637 -0.032567102 -0.02175013 0.034949422 0.02671144 -0.008141037 0.022087116 -0.027511505 0.013012834 0.03042716 0.024802487 0.027768686 -0.028273297 -0.010483178 0.051919807 0.0349686 -0.017963594 -0.016404357 -0.034467645
2 0.0374122 -0.0055376096 -0.029566124 -0.020498974 -0.022423578 0.02062656 -0.03263702 0.05550931 0.000644269 0.0047949445 0.013070088 0.054240186 -0.03653436 0.049289398 0.008552549 0.013421069 0.03964544 -0.012951552 0.02070566 0.014434278 -0.03408923 0.02958459 0.022500038 0.04786737 -0.019123951 0.03646566 -0.025393043 -0.010750239 -0.0041499347 -0.020107994 -0.03444243 0.017833736 -0.010252957 -0.02137478 -0.055633597 -0.017952766 -0.0094739795 0.016195351 0.035515174 -0.009408876 -4.1940664e-05 -0.033535384 -0.012873298 0.03093717 -0.022048244 -0.0064762114 -0.028383538 -0.044600513 0.010784913 -0.045814388 -0.0066177524 -0.003019852 0.0038920096 0.024599606 0.018587215 -0.010994118 -0.06708643 0.025645146 -0.029010098 -0.006705847 0.06359156 -0.04584662 -0.007435592 -0.0011658509 3.4785114e-07 -0.075351626 0.0073067164 -0.0030811506 -0.0051974836 -0.009771462 -0.024598775 -0.04703099 0.011009443 0.019015415 -0.037972353 0.035704628 -0.065716185 0.027448347 0.04070476 0.0011596137 0.00032276768 -0.024815744 0.00897544 -0.005007303 -0.0072029484 -0.009381388 0.020037754 -0.0003378754 0.0075603146 -0.031453945 0.044655778 -0.0037156614 -0.051422697 0.047283977 -0.046105526 -0.0039545726 0.024593106 0.07627697 -0.045686424 0.057532337 -0.039280005 0.005738775 0.016233983 -0.0037676436 -0.029757552 -0.024520276 0.054816395 -0.017252501 0.028292838 -0.017829265 -0.03390378 -0.017279178 0.035024572 0.024921196 -0.0057892003 0.020034866 -0.028050467 0.0121663865 0.028350191 0.028462445 0.023304004 -0.023773856 -0.0029426117 0.05467684 0.03688187 -0.020235177 -0.015581093 -0.032723077
8 0.037382543 0.00026400478 -0.02365307 -0.019840263 -0.023864178 0.016679745 -0.030043075 0.048950553 0.0023665165 0.004036728 0.015666962 0.04975987 -0.039313003 0.047060985 0.014513105 0.018671123 0.03547345 -0.009651144 0.025193555 0.02051204 -0.027566018 0.03007194 0.018618055 0.04272825 -0.014255353 0.03784181 -0.02418026 -0.0034655842 -0.007895587 -0.021288494 -0.03058279 0.013412007 -0.011474861 -0.013676549 -0.052401945 -0.019276742 -0.0065700067 0.01281934 0.037549485 -0.0100564305 -0.0038302916 -0.033470817 -0.013487092 0.027611297 -0.02235997 -0.0034043358 -0.022947954 -0.035535842 0.006286867 -0.03923066 -0.0027367163 -0.003401569 0.0032973168 0.022746483 0.02092996 -0.006270824 -0.06289789 0.02661402 -0.020832296 -0.010313891 0.054764457 -0.047287956 -0.0040965313 -0.00050082506 -0.0031866294 -0.06935842 0.0070759803 -0.0064189406 -0.0055060494 -0.0069179134 -0.018267138 -0.04018554 0.008901645 0.019880468 -0.032302346 0.03817188 -0.058336563 0.025831591 0.037997663 0.0049569625 0.0028530757 -0.020068778 0.0035196138 -0.005032337 -0.0095008155 -0.009856608 0.013948067 -0.004759745 0.0045459922 -0.030139798 0.044441063 0.0039797183 -0.042351127 0.047753237 -0.041534547 0.0013153778 0.019679593 0.068311036 -0.04023764 0.053656273 -0.03518016 0.0069851303 0.009174464 -0.0064909593 -0.030292189 -0.023413358 0.051744126 -0.022339435 0.020113926 -0.015123159 -0.03127337 -0.023859072 0.032274604 0.024776809 -0.006826842 0.016561726 -0.025911862 0.014657979 0.028261004 0.026202133 0.022042548 -0.02036159 -0.008379041 0.042874586 0.03274854 -0.018049086 -0.018897204 -0.02818092
